digraph Tree {
node [shape=box, style="filled, rounded", color="black", fontname="helvetica"] ;
edge [fontname="helvetica"] ;
0 [label="loc <= 27.5\ngini = 0.5\nsamples = 472\nvalue = [350, 370]", fillcolor="#f4fafe"] ;
1 [label="v <= 103.265\ngini = 0.427\nsamples = 235\nvalue = [258, 115]", fillcolor="#f1b991"] ;
0 -> 1 [labeldistance=2.5, labelangle=45, headlabel="True"] ;
2 [label="loc <= 2.0\ngini = 0.081\nsamples = 63\nvalue = [90, 4]", fillcolor="#e68742"] ;
1 -> 2 ;
3 [label="gini = 0.0\nsamples = 1\nvalue = [0, 1]", fillcolor="#399de5"] ;
2 -> 3 ;
4 [label="b <= 0.212\ngini = 0.062\nsamples = 62\nvalue = [90, 3]", fillcolor="#e68540"] ;
2 -> 4 ;
5 [label="gini = 0.0\nsamples = 59\nvalue = [90, 0]", fillcolor="#e58139"] ;
4 -> 5 ;
6 [label="gini = 0.0\nsamples = 3\nvalue = [0, 3]", fillcolor="#399de5"] ;
4 -> 6 ;
7 [label="l <= 0.071\ngini = 0.479\nsamples = 172\nvalue = [168, 111]", fillcolor="#f6d4bc"] ;
1 -> 7 ;
8 [label="lOComment <= 6.5\ngini = 0.259\nsamples = 61\nvalue = [83, 15]", fillcolor="#ea985d"] ;
7 -> 8 ;
9 [label="gini = 0.0\nsamples = 32\nvalue = [54, 0]", fillcolor="#e58139"] ;
8 -> 9 ;
10 [label="uniq_Opnd <= 20.0\ngini = 0.449\nsamples = 29\nvalue = [29, 15]", fillcolor="#f2c29f"] ;
8 -> 10 ;
11 [label="gini = 0.0\nsamples = 11\nvalue = [15, 0]", fillcolor="#e58139"] ;
10 -> 11 ;
12 [label="gini = 0.499\nsamples = 18\nvalue = [14, 15]", fillcolor="#f2f8fd"] ;
10 -> 12 ;
13 [label="uniq_Op <= 17.04\ngini = 0.498\nsamples = 111\nvalue = [85, 96]", fillcolor="#e8f4fc"] ;
7 -> 13 ;
14 [label="b <= 0.055\ngini = 0.492\nsamples = 95\nvalue = [85, 66]", fillcolor="#f9e3d3"] ;
13 -> 14 ;
15 [label="gini = 0.441\nsamples = 41\nvalue = [21, 43]", fillcolor="#9acdf2"] ;
14 -> 15 ;
16 [label="gini = 0.389\nsamples = 54\nvalue = [64, 23]", fillcolor="#eeae80"] ;
14 -> 16 ;
17 [label="gini = 0.0\nsamples = 16\nvalue = [0, 30]", fillcolor="#399de5"] ;
13 -> 17 ;
18 [label="lOComment <= 3.5\ngini = 0.39\nsamples = 237\nvalue = [92, 255]", fillcolor="#80c0ee"] ;
0 -> 18 [labeldistance=2.5, labelangle=-45, headlabel="False"] ;
19 [label="gini = 0.0\nsamples = 8\nvalue = [13, 0]", fillcolor="#e58139"] ;
18 -> 19 ;
20 [label="total_Op <= 63.0\ngini = 0.361\nsamples = 229\nvalue = [79, 255]", fillcolor="#76bbed"] ;
18 -> 20 ;
21 [label="gini = 0.0\nsamples = 2\nvalue = [4, 0]", fillcolor="#e58139"] ;
20 -> 21 ;
22 [label="lOCode <= 24.0\ngini = 0.351\nsamples = 227\nvalue = [75, 255]", fillcolor="#73baed"] ;
20 -> 22 ;
23 [label="lOCode <= 5.5\ngini = 0.312\nsamples = 213\nvalue = [60, 250]", fillcolor="#69b5eb"] ;
22 -> 23 ;
24 [label="gini = 0.387\nsamples = 105\nvalue = [41, 115]", fillcolor="#80c0ee"] ;
23 -> 24 ;
25 [label="gini = 0.216\nsamples = 108\nvalue = [19, 135]", fillcolor="#55abe9"] ;
23 -> 25 ;
26 [label="lOComment <= 209.5\ngini = 0.375\nsamples = 14\nvalue = [15, 5]", fillcolor="#eeab7b"] ;
22 -> 26 ;
27 [label="gini = 0.0\nsamples = 11\nvalue = [15, 0]", fillcolor="#e58139"] ;
26 -> 27 ;
28 [label="gini = 0.0\nsamples = 3\nvalue = [0, 5]", fillcolor="#399de5"] ;
26 -> 28 ;
}