digraph Tree {
node [shape=box, style="filled, rounded", color="black", fontname="helvetica"] ;
edge [fontname="helvetica"] ;
0 [label="loc <= 9.02\ngini = 0.5\nsamples = 2228\nvalue = [1770, 1781]", fillcolor="#fefeff"] ;
1 [label="lOCode <= 0.5\ngini = 0.297\nsamples = 778\nvalue = [1010, 224]", fillcolor="#eb9d65"] ;
0 -> 1 [labeldistance=2.5, labelangle=45, headlabel="True"] ;
2 [label="loc <= 2.256\ngini = 0.061\nsamples = 271\nvalue = [403, 13]", fillcolor="#e6853f"] ;
1 -> 2 ;
3 [label="e <= 21.95\ngini = 0.017\nsamples = 217\nvalue = [337, 3]", fillcolor="#e5823b"] ;
2 -> 3 ;
4 [label="l <= 0.835\ngini = 0.007\nsamples = 174\nvalue = [273, 1]", fillcolor="#e5813a"] ;
3 -> 4 ;
5 [label="gini = 0.0\nsamples = 164\nvalue = [260, 0]", fillcolor="#e58139"] ;
4 -> 5 ;
6 [label="gini = 0.133\nsamples = 10\nvalue = [13, 1]", fillcolor="#e78b48"] ;
4 -> 6 ;
7 [label="n <= 6.5\ngini = 0.059\nsamples = 43\nvalue = [64, 2]", fillcolor="#e6853f"] ;
3 -> 7 ;
8 [label="gini = 0.198\nsamples = 13\nvalue = [16, 2]", fillcolor="#e89152"] ;
7 -> 8 ;
9 [label="gini = 0.0\nsamples = 30\nvalue = [48, 0]", fillcolor="#e58139"] ;
7 -> 9 ;
10 [label="total_Op <= 4.5\ngini = 0.229\nsamples = 54\nvalue = [66, 10]", fillcolor="#e99457"] ;
2 -> 10 ;
11 [label="e <= 9.331\ngini = 0.087\nsamples = 46\nvalue = [63, 3]", fillcolor="#e68742"] ;
10 -> 11 ;
12 [label="gini = 0.185\nsamples = 20\nvalue = [26, 3]", fillcolor="#e89050"] ;
11 -> 12 ;
13 [label="gini = 0.0\nsamples = 26\nvalue = [37, 0]", fillcolor="#e58139"] ;
11 -> 13 ;
14 [label="t <= 3.679\ngini = 0.42\nsamples = 8\nvalue = [3, 7]", fillcolor="#8ec7f0"] ;
10 -> 14 ;
15 [label="gini = 0.219\nsamples = 6\nvalue = [1, 7]", fillcolor="#55abe9"] ;
14 -> 15 ;
16 [label="gini = 0.0\nsamples = 2\nvalue = [2, 0]", fillcolor="#e58139"] ;
14 -> 16 ;
17 [label="uniq_Opnd <= 6.021\ngini = 0.383\nsamples = 507\nvalue = [607, 211]", fillcolor="#eead7e"] ;
1 -> 17 ;
18 [label="uniq_Op <= 5.878\ngini = 0.356\nsamples = 465\nvalue = [581, 175]", fillcolor="#eda775"] ;
17 -> 18 ;
19 [label="e <= 95.398\ngini = 0.385\nsamples = 386\nvalue = [463, 163]", fillcolor="#eead7f"] ;
18 -> 19 ;
20 [label="gini = 0.344\nsamples = 343\nvalue = [438, 124]", fillcolor="#eca571"] ;
19 -> 20 ;
21 [label="gini = 0.476\nsamples = 43\nvalue = [25, 39]", fillcolor="#b8dcf6"] ;
19 -> 21 ;
22 [label="b <= 0.013\ngini = 0.168\nsamples = 79\nvalue = [118, 12]", fillcolor="#e88e4d"] ;
18 -> 22 ;
23 [label="gini = 0.0\nsamples = 39\nvalue = [62, 0]", fillcolor="#e58139"] ;
22 -> 23 ;
24 [label="gini = 0.291\nsamples = 40\nvalue = [56, 12]", fillcolor="#eb9c63"] ;
22 -> 24 ;
25 [label="b <= 0.04\ngini = 0.487\nsamples = 42\nvalue = [26, 36]", fillcolor="#c8e4f8"] ;
17 -> 25 ;
26 [label="total_Opnd <= 10.884\ngini = 0.43\nsamples = 34\nvalue = [15, 33]", fillcolor="#93caf1"] ;
25 -> 26 ;
27 [label="gini = 0.349\nsamples = 29\nvalue = [9, 31]", fillcolor="#72b9ed"] ;
26 -> 27 ;
28 [label="gini = 0.375\nsamples = 5\nvalue = [6, 2]", fillcolor="#eeab7b"] ;
26 -> 28 ;
29 [label="d <= 9.24\ngini = 0.337\nsamples = 8\nvalue = [11, 3]", fillcolor="#eca36f"] ;
25 -> 29 ;
30 [label="gini = 0.165\nsamples = 6\nvalue = [10, 1]", fillcolor="#e88e4d"] ;
29 -> 30 ;
31 [label="gini = 0.444\nsamples = 2\nvalue = [1, 2]", fillcolor="#9ccef2"] ;
29 -> 31 ;
32 [label="v <= 615.47\ngini = 0.441\nsamples = 1450\nvalue = [760, 1557]", fillcolor="#9acdf2"] ;
0 -> 32 [labeldistance=2.5, labelangle=-45, headlabel="False"] ;
33 [label="total_Opnd <= 7.086\ngini = 0.493\nsamples = 863\nvalue = [608, 766]", fillcolor="#d6ebfa"] ;
32 -> 33 ;
34 [label="l <= 0.296\ngini = 0.425\nsamples = 93\nvalue = [102, 45]", fillcolor="#f0b990"] ;
33 -> 34 ;
35 [label="vg <= 1.868\ngini = 0.268\nsamples = 65\nvalue = [79, 15]", fillcolor="#ea995f"] ;
34 -> 35 ;
36 [label="gini = 0.408\nsamples = 37\nvalue = [35, 14]", fillcolor="#efb388"] ;
35 -> 36 ;
37 [label="gini = 0.043\nsamples = 28\nvalue = [44, 1]", fillcolor="#e6843d"] ;
35 -> 37 ;
38 [label="n <= 9.686\ngini = 0.491\nsamples = 28\nvalue = [23, 30]", fillcolor="#d1e8f9"] ;
34 -> 38 ;
39 [label="gini = 0.153\nsamples = 7\nvalue = [11, 1]", fillcolor="#e78c4b"] ;
38 -> 39 ;
40 [label="gini = 0.414\nsamples = 21\nvalue = [12, 29]", fillcolor="#8bc6f0"] ;
38 -> 40 ;
41 [label="i <= 16.032\ngini = 0.485\nsamples = 770\nvalue = [506, 721]", fillcolor="#c4e2f7"] ;
33 -> 41 ;
42 [label="uniq_Opnd <= 3.717\ngini = 0.415\nsamples = 66\nvalue = [77, 32]", fillcolor="#f0b58b"] ;
41 -> 42 ;
43 [label="gini = 0.0\nsamples = 3\nvalue = [0, 7]", fillcolor="#399de5"] ;
42 -> 43 ;
44 [label="gini = 0.37\nsamples = 63\nvalue = [77, 25]", fillcolor="#edaa79"] ;
42 -> 44 ;
45 [label="ivg <= 1.996\ngini = 0.473\nsamples = 704\nvalue = [429, 689]", fillcolor="#b4daf5"] ;
41 -> 45 ;
46 [label="gini = 0.388\nsamples = 257\nvalue = [106, 296]", fillcolor="#80c0ee"] ;
45 -> 46 ;
47 [label="gini = 0.495\nsamples = 447\nvalue = [323, 393]", fillcolor="#dceefa"] ;
45 -> 47 ;
48 [label="ivg <= 2.015\ngini = 0.27\nsamples = 587\nvalue = [152, 791]", fillcolor="#5fb0ea"] ;
32 -> 48 ;
49 [label="t <= 262.767\ngini = 0.298\nsamples = 9\nvalue = [9, 2]", fillcolor="#eb9d65"] ;
48 -> 49 ;
50 [label="gini = 0.0\nsamples = 1\nvalue = [0, 2]", fillcolor="#399de5"] ;
49 -> 50 ;
51 [label="gini = 0.0\nsamples = 8\nvalue = [9, 0]", fillcolor="#e58139"] ;
49 -> 51 ;
52 [label="b <= 0.35\ngini = 0.26\nsamples = 578\nvalue = [143, 789]", fillcolor="#5dafea"] ;
48 -> 52 ;
53 [label="total_Op <= 92.938\ngini = 0.353\nsamples = 243\nvalue = [88, 297]", fillcolor="#74baed"] ;
52 -> 53 ;
54 [label="gini = 0.22\nsamples = 139\nvalue = [28, 195]", fillcolor="#55abe9"] ;
53 -> 54 ;
55 [label="gini = 0.466\nsamples = 104\nvalue = [60, 102]", fillcolor="#add7f4"] ;
53 -> 55 ;
56 [label="n <= 178.375\ngini = 0.181\nsamples = 335\nvalue = [55, 492]", fillcolor="#4fa8e8"] ;
52 -> 56 ;
57 [label="gini = 0.0\nsamples = 1\nvalue = [1, 0]", fillcolor="#e58139"] ;
56 -> 57 ;
58 [label="gini = 0.178\nsamples = 334\nvalue = [54, 492]", fillcolor="#4fa8e8"] ;
56 -> 58 ;
}