digraph Tree {
node [shape=box, style="filled, rounded", color="black", fontname="helvetica"] ;
edge [fontname="helvetica"] ;
0 [label="HALSTEAD_DIFFICULTY <= 49.895\ngini = 0.481\nsamples = 115\nvalue = [105, 71]", fillcolor="#f7d6bf"] ;
1 [label="HALSTEAD_ERROR_EST <= 0.025\ngini = 0.432\nsamples = 96\nvalue = [102, 47]", fillcolor="#f1bb94"] ;
0 -> 1 [labeldistance=2.5, labelangle=45, headlabel="True"] ;
2 [label="gini = 0.0\nsamples = 13\nvalue = [22, 0]", fillcolor="#e58139"] ;
1 -> 2 ;
3 [label="DECISION_DENSITY <= 2.256\ngini = 0.466\nsamples = 83\nvalue = [80, 47]", fillcolor="#f4cbad"] ;
1 -> 3 ;
4 [label="NUMBER_OF_LINES <= 12.5\ngini = 0.444\nsamples = 74\nvalue = [76, 38]", fillcolor="#f2c09c"] ;
3 -> 4 ;
5 [label="NODE_COUNT <= 5.5\ngini = 0.408\nsamples = 9\nvalue = [4, 10]", fillcolor="#88c4ef"] ;
4 -> 5 ;
6 [label="gini = 0.0\nsamples = 6\nvalue = [0, 8]", fillcolor="#399de5"] ;
5 -> 6 ;
7 [label="gini = 0.444\nsamples = 3\nvalue = [4, 2]", fillcolor="#f2c09c"] ;
5 -> 7 ;
8 [label="NUM_UNIQUE_OPERANDS <= 6.5\ngini = 0.403\nsamples = 65\nvalue = [72, 28]", fillcolor="#efb286"] ;
4 -> 8 ;
9 [label="gini = 0.0\nsamples = 2\nvalue = [0, 3]", fillcolor="#399de5"] ;
8 -> 9 ;
10 [label="gini = 0.383\nsamples = 63\nvalue = [72, 25]", fillcolor="#eead7e"] ;
8 -> 10 ;
11 [label="NORMALIZED_CYLOMATIC_COMPLEXITY <= 0.135\ngini = 0.426\nsamples = 9\nvalue = [4, 9]", fillcolor="#91c9f1"] ;
3 -> 11 ;
12 [label="gini = 0.0\nsamples = 2\nvalue = [3, 0]", fillcolor="#e58139"] ;
11 -> 12 ;
13 [label="DESIGN_DENSITY <= 0.259\ngini = 0.18\nsamples = 7\nvalue = [1, 9]", fillcolor="#4fa8e8"] ;
11 -> 13 ;
14 [label="gini = 0.0\nsamples = 1\nvalue = [1, 0]", fillcolor="#e58139"] ;
13 -> 14 ;
15 [label="gini = 0.0\nsamples = 6\nvalue = [0, 9]", fillcolor="#399de5"] ;
13 -> 15 ;
16 [label="PERCENT_COMMENTS <= 18.636\ngini = 0.198\nsamples = 19\nvalue = [3, 24]", fillcolor="#52a9e8"] ;
0 -> 16 [labeldistance=2.5, labelangle=-45, headlabel="False"] ;
17 [label="HALSTEAD_PROG_TIME <= 41318.371\ngini = 0.49\nsamples = 4\nvalue = [3, 4]", fillcolor="#cee6f8"] ;
16 -> 17 ;
18 [label="NUM_OPERATORS <= 338.5\ngini = 0.375\nsamples = 3\nvalue = [3, 1]", fillcolor="#eeab7b"] ;
17 -> 18 ;
19 [label="gini = 0.0\nsamples = 1\nvalue = [0, 1]", fillcolor="#399de5"] ;
18 -> 19 ;
20 [label="gini = 0.0\nsamples = 2\nvalue = [3, 0]", fillcolor="#e58139"] ;
18 -> 20 ;
21 [label="gini = 0.0\nsamples = 1\nvalue = [0, 3]", fillcolor="#399de5"] ;
17 -> 21 ;
22 [label="gini = 0.0\nsamples = 15\nvalue = [0, 20]", fillcolor="#399de5"] ;
16 -> 22 ;
}